-4.008565472869053334e-03 9.829025496655348706e-03 -7.727804249009498578e-04 -5.652737561613638967e-03 2.787998578727976864e-03 4.191610050870907440e-03 3.941885770246323327e-03 3.827984234808714994e-03 3.481656133423082118e-03 6.940018878649760643e-03 3.241473617487054121e-02 2.475994563746470971e-03 -3.863464063207899032e-03 8.500924290988899623e-03 -2.293719631989777838e-03 -1.857316903235028353e-03 -5.705528367487115032e-03 -8.466912328660602255e-03 -5.686680114412609541e-04 6.966188214198482630e-03 1.935347616676480085e-03 -6.315915585498685196e-03 2.430523690739010015e-04 -2.755582049893819346e-04 -4.069302885311635969e-04 -1.640533022359731696e-04 1.465193064154033970e-04 -3.352286674654919715e-04 -4.449292724376932226e-03 -1.356979990810126076e-04 -2.180323623244028505e-03 5.432356408916677593e-03 4.434523356641329047e-05 -1.581772627531045187e-05 -7.623595220260120410e-04 -6.782851279068799000e-04
-3.751772827938604400e-03 9.966813538245519050e-03 -3.024598728541212688e-04 -5.219900043585855819e-03 5.590857406033551908e-04 2.160220558537070783e-03 2.029535171302025796e-03 4.363704705924019260e-03 3.852767128030609549e-03 6.673942646997623428e-03 -2.862872162599524109e-02 1.982529017021169866e-03 5.080829869806545614e-03 8.343555640484870764e-03 -9.598376153906010592e-04 1.057359034126610078e-03 -3.132329865591412018e-03 -5.042888600817100643e-03 -7.284496937211129347e-04 6.821202760103600889e-03 3.232385189919759552e-03 -3.620888842504106035e-03 7.510339581914803877e-04 -1.269007741107903509e-03 -7.496567902644567585e-04 -2.405083482729925665e-04 -1.646068249765597516e-04 -3.522166380390020748e-05 -2.556701959678382534e-04 -1.110796674275726402e-06 4.553518709328251840e-03 5.633114163851859861e-03 1.722777922723091500e-04 -1.002350178322791426e-04 -1.804156710498852362e-03 2.860582124181294773e-04
-3.040076756022740134e-03 1.024132874938742978e-02 2.444131971088587141e-03 -4.245091811348551160e-03 7.096580589128504563e-03 2.013496470445407058e-03 2.873805252118149817e-03 3.173766448599786832e-03 2.783489663182469979e-03 7.787111211153488997e-03 -4.051086335673952099e-02 8.591409409698078136e-04 -1.998093862272324174e-04 8.666333392703976998e-03 -2.356040149081424506e-03 1.322018137268744873e-03 -2.110919647908515197e-03 -7.914096627941709719e-03 8.897640523061137868e-04 8.289129814611669034e-03 1.595566017266660626e-03 1.492499477255417257e-03 2.532989444612821633e-03 -2.666623836994243206e-05 2.134690605645876726e-04 5.195896413239918391e-04 1.816349655000989950e-04 3.933428196347209639e-04 -3.560720801215837457e-03 3.671785674496158471e-04 6.248599465492456293e-04 7.497212866791786411e-03 8.835050730249288014e-05 -4.329582317623474836e-05 1.905938121838049665e-03 9.327033515466881400e-04
-2.845558196551462374e-03 9.948004054483306630e-03 -5.926857349836253067e-04 -8.344955979592632526e-04 6.498696150861381533e-03 3.465455643542235224e-03 4.460425300328092757e-03 2.847391895802255622e-03 6.289820529454626628e-03 6.953696591144711836e-03 -4.894794357748123020e-02 -2.997879077176248417e-04 -8.976589154967163763e-04 8.523436231471278463e-03 2.583466364120004088e-03 9.210599041735858345e-04 -3.186545880321028142e-03 -9.154020687732449674e-03 -1.907679277496174709e-03 7.177415071261229046e-03 -1.607335040973917068e-03 1.599241262701256308e-03 -8.513991596076172412e-04 -4.969710329818164112e-04 -1.971647251416161039e-04 -7.853322044506945692e-04 3.080720116367042421e-04 -7.469571472953230172e-05 2.728115640686624662e-04 -1.303751533185286415e-03 -2.460749975155089846e-03 6.616894566520054727e-03 -6.876184173798450432e-05 -1.653477226653167086e-04 1.453342947472101472e-03 8.692400052245179403e-04
-1.991746308090775949e-03 1.009789936309543959e-02 8.933247818790788705e-03 3.503510089996275667e-03 1.362867441401863396e-02 5.620159014388268794e-03 7.275434708808804947e-03 2.529376628289379137e-03 4.850817556242645150e-03 8.503261875998100253e-03 -2.363044206470029523e-02 -1.327945202319867537e-03 -1.338989779009060882e-03 9.622931314193308022e-03 -7.226219720827847153e-04 -2.537600275460653193e-04 -4.003399016158395302e-03 -9.920664221188119081e-03 -1.192097744012838786e-03 8.699102560288508521e-03 -7.008592987558072765e-04 -2.640164783028787175e-03 -1.192568245506666182e-03 4.484869110308932403e-06 1.224961828834042899e-04 -1.182969913228458129e-05 -1.177606876837425679e-03 5.405106300714451186e-04 -5.504839550061662971e-03 -2.380240557035580957e-04 1.199479893444507436e-03 7.785111497269055734e-03 7.968404080854815522e-05 2.880418354979786587e-05 1.658624481778106594e-03 1.751350229711614952e-04
-1.075502149839500932e-03 1.069321838829532904e-02 5.104398832441426996e-03 2.101148725555402382e-03 1.162811704247154396e-02 6.777505223470962729e-03 7.644713242205934157e-03 2.660250838457818654e-03 4.401839425540097356e-03 1.124247130885194790e-02 5.031104632279375516e-02 -2.455007596291626688e-03 2.529761531506519623e-04 1.005296857607433821e-02 7.988533290202519919e-04 3.409273247610018743e-04 -1.302054782019145375e-03 -5.112512457824786374e-03 2.465137982874159722e-03 1.149486744089312125e-02 -3.728368950885002382e-03 -5.894292185297912191e-03 -2.269118098235229936e-03 4.669448853485644335e-04 2.977174380061151923e-05 2.766661399328995338e-04 -1.716758641152266781e-04 1.916287951599770145e-03 -4.668324222308607024e-03 2.229032431708547531e-03 2.763018669281093985e-03 9.973319192182229787e-03 6.737551298928334373e-06 -5.315997406701771584e-05 3.675804065597155276e-03 2.608693220900339723e-03
-1.175725239486944405e-04 1.054731202346641424e-02 7.407071864308915551e-03 7.904361218459998728e-03 2.188214640130469943e-02 9.790285533264537696e-03 1.169816041607103264e-02 6.376139956566475621e-03 8.400448550161006625e-03 6.479379462237694690e-03 5.000833152572353724e-02 -4.444140810323030967e-03 3.802951763887744887e-03 1.020952259676217479e-02 -2.810139386294516033e-04 1.507055206704781530e-03 3.711941217688573508e-04 -6.543228000975487811e-03 -2.419528338962128114e-03 6.956676792527366829e-03 -1.157533341376884746e-02 -1.024607244666992691e-02 5.316794601527129877e-04 -1.671585869081215368e-03 -1.242058648050894075e-03 -1.588991208296220868e-03 5.381013497421125802e-04 -1.407945283634286270e-03 -8.475375771953468432e-03 -3.393326759678468897e-03 -1.119650628432906870e-03 5.249566096712643751e-03 -7.884284186409171874e-05 -1.023458294226503362e-04 -2.811369729308269352e-03 -7.613607233743206748e-03
6.905659391752231322e-04 1.050190595279600243e-02 1.824160847091046977e-02 1.122634543280904250e-02 2.291468336073632442e-02 1.190771879254860950e-02 1.405140789367315124e-02 9.710673711212747944e-03 9.880319624777492149e-03 1.149463752641236881e-02 2.076952772713408155e-02 -6.335016073791688643e-03 9.853587406119976647e-03 1.020064847232876777e-02 1.336034478189969876e-04 1.408241408143271747e-03 -1.219855746141018269e-03 -1.027921704066706021e-02 1.010089486865733315e-03 1.161789652772715273e-02 1.635010324891305157e-03 -8.615758746381183691e-03 2.669292011518568843e-03 -1.893601193067092443e-03 -9.193646253328687000e-04 -6.055132318468250648e-04 -1.129937986463292257e-03 8.121393398635239590e-04 -1.222792079168026277e-02 5.103933711086519913e-04 2.657267136576688376e-03 9.482089087504847955e-03 9.460324468448560640e-05 -1.685384884993567744e-04 8.112470198571242934e-05 -7.476115747761054656e-03
2.396512464920639695e-03 1.150281002436645203e-02 2.967362268661133395e-02 1.804540621654236038e-02 1.370954731205980062e-02 1.697664702987721971e-02 1.655663485883365413e-02 1.470890115707402732e-02 1.252113266045348783e-02 1.804202587129531341e-02 -1.025123797498781082e-02 -8.231305026026163388e-03 1.421856573269582487e-02 1.181802275548318563e-02 2.567195371009638356e-03 3.310705569612310602e-03 5.454684324206703593e-04 -7.524867424443791065e-03 5.175290127953155808e-03 1.922988124697155854e-02 2.159441374785446219e-02 2.483725775549039481e-03 9.566139838663075814e-04 3.184345271758208269e-03 2.914731288963538260e-03 3.760655009282394632e-03 1.443877464037045429e-03 -2.210748813192793061e-04 -1.315165228369238014e-02 5.636521629187158343e-03 6.043665156025027248e-03 1.763925904183202484e-02 -5.635427822814758231e-05 -9.476878295905117461e-05 7.662307827715908980e-03 -4.732232698707255852e-04
